
\data\
ngram 1=12

\1-grams:
-0.8211859	</s>
-99	<s>
-1.122216	EIGHT
-0.9461246	FIVE
-1.025306	FOUR
-1.122216	NINE
-1.122216	ONE
-1.122216	SEVEN
-1.122216	SIX
-1.122216	TEN
-0.9461246	THREE
-1.122216	TWO

\end\
